{"Discriminator Loss": 8.746947666319707e-06, "Generator Loss": 11.76378313700358, "_timestamp": 1714470056.9574547, "_runtime": 467.9521505832672, "_step": 499, "gradients/graph_11conv5.weight": {"_type": "histogram", "values": [1.0, 0.0, 0.0, 0.0, 2.0, 2.0, 1.0, 2.0, 1.0, 4.0, 3.0, 7.0, 7.0, 3.0, 4.0, 10.0, 14.0, 15.0, 21.0, 12.0, 25.0, 21.0, 35.0, 36.0, 43.0, 43.0, 61.0, 74.0, 68.0, 77.0, 74.0, 76.0, 114.0, 111.0, 100.0, 128.0, 132.0, 128.0, 111.0, 130.0, 140.0, 120.0, 156.0, 167.0, 145.0, 150.0, 158.0, 158.0, 161.0, 152.0, 161.0, 140.0, 223.0, 417.0, 939.0, 868.0, 807.0, 588.0, 428.0, 258.0, 104.0, 40.0, 14.0, 2.0], "bins": [-3.407613754272461, -3.344426393508911, -3.2812387943267822, -3.2180514335632324, -3.1548640727996826, -3.091676712036133, -3.028489112854004, -2.965301752090454, -2.9021143913269043, -2.8389267921447754, -2.7757394313812256, -2.712552070617676, -2.649364709854126, -2.586177110671997, -2.5229897499084473, -2.4598023891448975, -2.3966150283813477, -2.3334274291992188, -2.270240068435669, -2.207052707672119, -2.1438651084899902, -2.0806777477264404, -2.0174903869628906, -1.9543029069900513, -1.891115427017212, -1.827928066253662, -1.7647405862808228, -1.701553225517273, -1.6383657455444336, -1.5751783847808838, -1.5119909048080444, -1.4488035440444946, -1.3856161832809448, -1.3224287033081055, -1.2592413425445557, -1.1960538625717163, -1.1328665018081665, -1.0696790218353271, -1.0064916610717773, -0.943304181098938, -0.8801167607307434, -0.8169293403625488, -0.7537419199943542, -0.6905544996261597, -0.6273670196533203, -0.5641795992851257, -0.5009921789169312, -0.4378047585487366, -0.374617338180542, -0.3114299178123474, -0.24824248254299164, -0.18505504727363586, -0.12186762690544128, -0.05868019908666611, 0.00450722873210907, 0.06769465655088425, 0.13088208436965942, 0.194069504737854, 0.2572569251060486, 0.32044437527656555, 0.38363179564476013, 0.4468192160129547, 0.5100066661834717, 0.5731940865516663, 0.6363815069198608]}, "gradients/graph_11conv5.bias": {"_type": "histogram", "values": [1.0], "bins": [-0.9999922513961792, -0.9999922513961792]}, "gradients/graph_11conv4_bn.weight": {"_type": "histogram", "values": [1.0, 0.0, 0.0, 3.0, 1.0, 0.0, 0.0, 0.0, 0.0, 1.0, 1.0, 0.0, 4.0, 1.0, 1.0, 3.0, 5.0, 5.0, 6.0, 2.0, 1.0, 5.0, 5.0, 11.0, 6.0, 6.0, 6.0, 7.0, 5.0, 5.0, 10.0, 8.0, 12.0, 13.0, 14.0, 12.0, 17.0, 14.0, 21.0, 22.0, 15.0, 22.0, 26.0, 18.0, 23.0, 22.0, 21.0, 16.0, 16.0, 13.0, 16.0, 8.0, 12.0, 10.0, 6.0, 10.0, 8.0, 0.0, 3.0, 5.0, 3.0, 0.0, 3.0, 2.0], "bins": [-0.2571817636489868, -0.25013211369514465, -0.2430824637413025, -0.23603281378746033, -0.22898316383361816, -0.2219334989786148, -0.21488384902477264, -0.20783419907093048, -0.20078454911708832, -0.19373489916324615, -0.186685249209404, -0.17963559925556183, -0.17258593440055847, -0.1655362844467163, -0.15848663449287415, -0.15143698453903198, -0.14438733458518982, -0.13733768463134766, -0.1302880346775055, -0.12323837727308273, -0.11618872731924057, -0.10913907736539841, -0.10208941996097565, -0.09503977000713348, -0.08799012005329132, -0.08094047009944916, -0.073890820145607, -0.06684116274118423, -0.05979151278734207, -0.05274186283349991, -0.04569220915436745, -0.038642555475234985, -0.03159289062023163, -0.024543238803744316, -0.017493586987257004, -0.010443935170769691, -0.003394283354282379, 0.003655368462204933, 0.010705020278692245, 0.017754672095179558, 0.02480432391166687, 0.03185397386550903, 0.038903627544641495, 0.045953281223773956, 0.05300293117761612, 0.06005258113145828, 0.06710223853588104, 0.0741518884897232, 0.08120153844356537, 0.08825118839740753, 0.0953008383512497, 0.10235049575567245, 0.10940014570951462, 0.11644979566335678, 0.12349945306777954, 0.1305491030216217, 0.13759875297546387, 0.14464840292930603, 0.1516980528831482, 0.15874770283699036, 0.16579735279083252, 0.17284701764583588, 0.17989666759967804, 0.1869463175535202, 0.19399596750736237]}, "gradients/graph_11conv4_bn.bias": {"_type": "histogram", "values": [1.0, 1.0, 2.0, 2.0, 2.0, 5.0, 3.0, 4.0, 2.0, 6.0, 4.0, 8.0, 3.0, 3.0, 5.0, 7.0, 13.0, 11.0, 11.0, 13.0, 16.0, 14.0, 21.0, 16.0, 15.0, 18.0, 20.0, 15.0, 19.0, 17.0, 19.0, 14.0, 14.0, 14.0, 19.0, 18.0, 14.0, 12.0, 21.0, 13.0, 16.0, 11.0, 7.0, 7.0, 8.0, 7.0, 4.0, 1.0, 4.0, 2.0, 3.0, 1.0, 1.0, 1.0, 1.0, 0.0, 0.0, 0.0, 1.0, 1.0, 0.0, 0.0, 0.0, 1.0], "bins": [-0.12855492532253265, -0.12286797910928726, -0.11718103289604187, -0.11149409413337708, -0.10580714792013168, -0.10012020170688629, -0.0944332629442215, -0.0887463167309761, -0.08305937051773071, -0.07737242430448532, -0.07168547809123993, -0.06599853932857513, -0.06031159311532974, -0.05462464690208435, -0.04893770441412926, -0.043250761926174164, -0.03756381571292877, -0.03187686949968338, -0.026189927011728287, -0.020502982661128044, -0.014816038310527802, -0.009129093959927559, -0.0034421496093273163, 0.0022447947412729263, 0.007931739091873169, 0.013618683442473412, 0.019305627793073654, 0.024992572143673897, 0.03067951649427414, 0.03636646270751953, 0.042053405195474625, 0.04774034768342972, 0.053427308797836304, 0.059114255011081696, 0.06480120122432709, 0.07048813998699188, 0.07617508620023727, 0.08186203241348267, 0.08754897117614746, 0.09323591738939285, 0.09892286360263824, 0.10460980981588364, 0.11029675602912903, 0.11598369479179382, 0.12167064100503922, 0.1273575872182846, 0.1330445259809494, 0.1387314796447754, 0.14441841840744019, 0.15010535717010498, 0.15579231083393097, 0.16147924959659576, 0.16716620326042175, 0.17285314202308655, 0.17854008078575134, 0.18422703444957733, 0.18991397321224213, 0.19560091197490692, 0.2012878656387329, 0.2069748044013977, 0.2126617431640625, 0.2183486968278885, 0.22403563559055328, 0.22972258925437927, 0.23540952801704407]}, "gradients/graph_11conv4.weight": {"_type": "histogram", "values": [1.0, 1.0, 0.0, 1.0, 2.0, 0.0, 2.0, 7.0, 4.0, 9.0, 15.0, 19.0, 28.0, 49.0, 62.0, 94.0, 134.0, 174.0, 305.0, 440.0, 770.0, 1125.0, 1991.0, 3575.0, 6490.0, 12815.0, 26504.0, 56478.0, 128013.0, 296849.0, 675644.0, 510220.0, 196810.0, 87288.0, 41965.0, 21027.0, 11396.0, 6370.0, 3690.0, 2141.0, 1475.0, 885.0, 647.0, 435.0, 322.0, 241.0, 168.0, 129.0, 80.0, 63.0, 68.0, 35.0, 20.0, 28.0, 16.0, 10.0, 6.0, 9.0, 4.0, 1.0, 1.0, 0.0, 0.0, 1.0], "bins": [-0.6174591183662415, -0.5974507331848145, -0.5774423480033875, -0.5574339628219604, -0.5374255776405334, -0.5174171924591064, -0.49740877747535706, -0.47740039229393005, -0.45739200711250305, -0.43738362193107605, -0.41737523674964905, -0.39736685156822205, -0.37735843658447266, -0.35735005140304565, -0.33734166622161865, -0.31733328104019165, -0.29732489585876465, -0.27731651067733765, -0.25730812549591064, -0.23729972541332245, -0.21729134023189545, -0.19728295505046844, -0.17727455496788025, -0.15726616978645325, -0.13725778460502625, -0.11724939942359924, -0.09724100679159164, -0.07723261415958405, -0.05722422897815704, -0.03721584007143974, -0.017207451164722443, 0.002800937741994858, 0.022809386253356934, 0.042817775160074234, 0.06282616406679153, 0.08283455669879913, 0.10284294188022614, 0.12285132706165314, 0.14285972714424133, 0.16286811232566833, 0.18287649750709534, 0.20288488268852234, 0.22289326786994934, 0.24290166795253754, 0.26291006803512573, 0.28291845321655273, 0.30292683839797974, 0.32293522357940674, 0.34294360876083374, 0.36295199394226074, 0.38296037912368774, 0.40296876430511475, 0.42297714948654175, 0.44298556447029114, 0.46299394965171814, 0.48300233483314514, 0.5030107498168945, 0.5230191349983215, 0.5430275201797485, 0.5630359053611755, 0.5830442905426025, 0.6030526757240295, 0.6230610609054565, 0.6430694460868835, 0.6630778312683105]}, "gradients/graph_11conv4.bias": {"_type": "histogram", "values": [2.0, 0.0, 0.0, 0.0, 1.0, 0.0, 0.0, 0.0, 0.0, 1.0, 1.0, 2.0, 2.0, 3.0, 4.0, 16.0, 19.0, 33.0, 53.0, 66.0, 91.0, 80.0, 64.0, 28.0, 19.0, 8.0, 3.0, 2.0, 4.0, 3.0, 1.0, 0.0, 0.0, 0.0, 1.0, 0.0, 0.0, 0.0, 0.0, 1.0, 0.0, 0.0, 0.0, 1.0, 0.0, 0.0, 0.0, 1.0, 0.0, 0.0, 0.0, 0.0, 0.0, 0.0, 0.0, 0.0, 1.0, 0.0, 0.0, 0.0, 0.0, 0.0, 0.0, 1.0], "bins": [-3.5390257835388184e-08, -3.366221790201962e-08, -3.1934177968651056e-08, -3.020613803528249e-08, -2.847809810191393e-08, -2.6750058168545365e-08, -2.5022018235176802e-08, -2.3293978301808238e-08, -2.1565938368439674e-08, -1.983789843507111e-08, -1.8109858501702547e-08, -1.6381818568333983e-08, -1.465377863496542e-08, -1.2925738701596856e-08, -1.1197698768228292e-08, -9.469658834859729e-09, -7.741618901491165e-09, -6.0135789681226015e-09, -4.285539034754038e-09, -2.557499101385474e-09, -8.294591680169106e-10, 8.985807653516531e-10, 2.6266206987202168e-09, 4.35466063208878e-09, 6.082700565457344e-09, 7.810740498825908e-09, 9.538780432194471e-09, 1.1266820365563035e-08, 1.2994860298931599e-08, 1.4722900232300162e-08, 1.6450940165668726e-08, 1.817898009903729e-08, 1.9907020032405853e-08, 2.1635059965774417e-08, 2.336309989914298e-08, 2.5091139832511544e-08, 2.6819179765880108e-08, 2.854721969924867e-08, 3.0275259632617235e-08, 3.20032995659858e-08, 3.373133949935436e-08, 3.5459379432722926e-08, 3.718741936609149e-08, 3.8915459299460053e-08, 4.064349923282862e-08, 4.237153916619718e-08, 4.4099579099565744e-08, 4.582761903293431e-08, 4.755565896630287e-08, 4.9283698899671435e-08, 5.101173883304e-08, 5.273977876640856e-08, 5.4467818699777126e-08, 5.619585863314569e-08, 5.7923898566514254e-08, 5.965193849988282e-08, 6.137997843325138e-08, 6.310801836661994e-08, 6.483605829998851e-08, 6.656409823335707e-08, 6.829213816672564e-08, 7.00201781000942e-08, 7.174821803346276e-08, 7.347625796683133e-08, 7.520429790019989e-08]}, "gradients/graph_11conv3_bn.weight": {"_type": "histogram", "values": [1.0, 0.0, 0.0, 0.0, 0.0, 1.0, 0.0, 2.0, 2.0, 1.0, 1.0, 3.0, 8.0, 1.0, 2.0, 6.0, 3.0, 6.0, 6.0, 5.0, 6.0, 8.0, 6.0, 8.0, 6.0, 9.0, 10.0, 9.0, 9.0, 7.0, 9.0, 13.0, 7.0, 11.0, 6.0, 8.0, 5.0, 12.0, 6.0, 1.0, 5.0, 6.0, 5.0, 5.0, 3.0, 2.0, 2.0, 4.0, 0.0, 4.0, 2.0, 2.0, 3.0, 0.0, 1.0, 1.0, 1.0, 3.0, 0.0, 0.0, 1.0, 0.0, 0.0, 2.0], "bins": [-0.2853439450263977, -0.27600228786468506, -0.2666606307029724, -0.25731897354125977, -0.24797731637954712, -0.23863564431667328, -0.22929398715496063, -0.21995232999324799, -0.21061067283153534, -0.2012690156698227, -0.19192735850811005, -0.1825857013463974, -0.17324402928352356, -0.1639023721218109, -0.15456071496009827, -0.14521905779838562, -0.13587740063667297, -0.12653574347496033, -0.11719408631324768, -0.10785242170095444, -0.09851076453924179, -0.08916910737752914, -0.0798274427652359, -0.07048578560352325, -0.06114412844181061, -0.05180247128009796, -0.042460810393095016, -0.03311914950609207, -0.023777492344379425, -0.01443583332002163, -0.005094174295663834, 0.004247484728693962, 0.013589143753051758, 0.022930802777409554, 0.03227246180176735, 0.041614122688770294, 0.05095577985048294, 0.06029743701219559, 0.06963910162448883, 0.07898075878620148, 0.08832241594791412, 0.09766407310962677, 0.10700573027133942, 0.11634739488363266, 0.1256890594959259, 0.13503071665763855, 0.1443723738193512, 0.15371403098106384, 0.1630556881427765, 0.17239734530448914, 0.18173900246620178, 0.19108065962791443, 0.20042231678962708, 0.20976398885250092, 0.21910564601421356, 0.2284473031759262, 0.23778896033763885, 0.2471306174993515, 0.25647228956222534, 0.265813946723938, 0.27515560388565063, 0.2844972610473633, 0.2938389182090759, 0.3031805753707886, 0.3125222325325012]}, "gradients/graph_11conv3_bn.bias": {"_type": "histogram", "values": [1.0, 0.0, 1.0, 1.0, 2.0, 4.0, 1.0, 2.0, 2.0, 3.0, 4.0, 4.0, 3.0, 7.0, 6.0, 6.0, 4.0, 12.0, 9.0, 8.0, 10.0, 5.0, 9.0, 8.0, 10.0, 8.0, 11.0, 3.0, 8.0, 10.0, 7.0, 14.0, 8.0, 5.0, 9.0, 2.0, 2.0, 4.0, 4.0, 3.0, 3.0, 5.0, 3.0, 2.0, 2.0, 5.0, 2.0, 2.0, 1.0, 2.0, 0.0, 2.0, 0.0, 0.0, 0.0, 0.0, 2.0, 1.0, 1.0, 0.0, 0.0, 0.0, 0.0, 3.0], "bins": [-0.0687468945980072, -0.0637756958603859, -0.05880449339747429, -0.05383329093456268, -0.048862092196941376, -0.04389088973402977, -0.038919687271118164, -0.03394848853349686, -0.02897728607058525, -0.024006085470318794, -0.019034884870052338, -0.014063682407140732, -0.009092481806874275, -0.004121280740946531, 0.0008499203249812126, 0.0058211213909089565, 0.0107923224568367, 0.015763523057103157, 0.020734723657369614, 0.02570592612028122, 0.030677126720547676, 0.03564832732081413, 0.04061952978372574, 0.045590728521347046, 0.05056193098425865, 0.05553313344717026, 0.060504332184791565, 0.06547553092241287, 0.07044673711061478, 0.07541793584823608, 0.08038913458585739, 0.0853603407740593, 0.0903315395116806, 0.09530273824930191, 0.10027394443750381, 0.10524514317512512, 0.11021634191274643, 0.11518754810094833, 0.12015874683856964, 0.12512995302677155, 0.13010114431381226, 0.13507235050201416, 0.14004355669021606, 0.14501474797725677, 0.14998595416545868, 0.15495716035366058, 0.1599283516407013, 0.1648995578289032, 0.1698707640171051, 0.1748419553041458, 0.17981316149234772, 0.18478435277938843, 0.18975555896759033, 0.19472676515579224, 0.19969795644283295, 0.20466916263103485, 0.20964036881923676, 0.21461156010627747, 0.21958276629447937, 0.22455397248268127, 0.22952516376972198, 0.2344963699579239, 0.2394675761461258, 0.2444387674331665, 0.2494099736213684]}, "gradients/graph_11conv3.weight": {"_type": "histogram", "values": [1.0, 3.0, 1.0, 5.0, 3.0, 4.0, 7.0, 18.0, 17.0, 39.0, 63.0, 97.0, 152.0, 280.0, 402.0, 707.0, 1276.0, 1988.0, 3276.0, 5307.0, 8474.0, 13013.0, 19621.0, 28679.0, 38920.0, 49450.0, 57900.0, 60929.0, 56968.0, 47629.0, 36700.0, 27472.0, 19869.0, 13936.0, 9575.0, 6584.0, 4468.0, 3085.0, 2135.0, 1543.0, 1044.0, 745.0, 540.0, 376.0, 268.0, 195.0, 146.0, 109.0, 80.0, 41.0, 49.0, 35.0, 15.0, 16.0, 6.0, 9.0, 5.0, 5.0, 2.0, 1.0, 0.0, 2.0, 1.0, 2.0], "bins": [-0.5337403416633606, -0.5144847631454468, -0.49522915482521057, -0.47597357630729675, -0.45671796798706055, -0.43746238946914673, -0.4182068109512329, -0.3989512026309967, -0.3796956241130829, -0.36044004559516907, -0.34118443727493286, -0.32192885875701904, -0.3026732802391052, -0.283417671918869, -0.2641620934009552, -0.2449064999818802, -0.22565090656280518, -0.20639531314373016, -0.18713971972465515, -0.16788414120674133, -0.14862854778766632, -0.1293729543685913, -0.1101173684000969, -0.09086178243160248, -0.07160618901252747, -0.05235059931874275, -0.03309500962495804, -0.013839419931173325, 0.005416169762611389, 0.024671759456396103, 0.04392734915018082, 0.06318293511867523, 0.08243846893310547, 0.10169406235218048, 0.1209496483206749, 0.1402052342891693, 0.15946082770824432, 0.17871642112731934, 0.19797199964523315, 0.21722759306430817, 0.23648318648338318, 0.255738765001297, 0.2749943733215332, 0.294249951839447, 0.31350553035736084, 0.33276113867759705, 0.35201671719551086, 0.37127232551574707, 0.3905279040336609, 0.4097834825515747, 0.4290390908718109, 0.44829466938972473, 0.46755027770996094, 0.48680585622787476, 0.5060614347457886, 0.5253170132637024, 0.5445725917816162, 0.5638282299041748, 0.5830838084220886, 0.6023393869400024, 0.6215949654579163, 0.6408505439758301, 0.6601061820983887, 0.6793617606163025, 0.6986173391342163]}, "gradients/graph_11conv3.bias": {"_type": "histogram", "values": [1.0, 0.0, 0.0, 0.0, 0.0, 1.0, 1.0, 3.0, 3.0, 1.0, 2.0, 3.0, 3.0, 2.0, 4.0, 5.0, 6.0, 6.0, 5.0, 7.0, 9.0, 4.0, 8.0, 11.0, 6.0, 9.0, 3.0, 8.0, 14.0, 8.0, 11.0, 19.0, 10.0, 7.0, 9.0, 6.0, 10.0, 4.0, 8.0, 6.0, 4.0, 6.0, 4.0, 3.0, 0.0, 5.0, 4.0, 2.0, 0.0, 0.0, 1.0, 1.0, 0.0, 0.0, 2.0, 0.0, 0.0, 0.0, 0.0, 0.0, 0.0, 0.0, 0.0, 1.0], "bins": [-3.114109858870506e-08, -3.009427018696442e-08, -2.9047441785223782e-08, -2.8000613383483142e-08, -2.69537849817425e-08, -2.590695658000186e-08, -2.486012817826122e-08, -2.381329977652058e-08, -2.276647137477994e-08, -2.17196429730393e-08, -2.067281457129866e-08, -1.962598616955802e-08, -1.8579157767817378e-08, -1.7532329366076738e-08, -1.6485500964336097e-08, -1.5438672562595457e-08, -1.4391844160854816e-08, -1.3345015759114176e-08, -1.2298187357373536e-08, -1.1251358955632895e-08, -1.0204530553892255e-08, -9.157702152151614e-09, -8.110873750410974e-09, -7.064045348670334e-09, -6.017216946929693e-09, -4.970388545189053e-09, -3.9235601434484124e-09, -2.876731741707772e-09, -1.8299033399671316e-09, -7.830749382264912e-10, 2.637534635141492e-10, 1.3105818652547896e-09, 2.35741026699543e-09, 3.4042386687360704e-09, 4.451067070476711e-09, 5.497895472217351e-09, 6.544723873957992e-09, 7.591552275698632e-09, 8.638380677439272e-09, 9.685209079179913e-09, 1.0732037480920553e-08, 1.1778865882661194e-08, 1.2825694284401834e-08, 1.3872522686142474e-08, 1.4919351087883115e-08, 1.5966179489623755e-08, 1.7013007891364396e-08, 1.8059836293105036e-08, 1.9106664694845676e-08, 2.0153493096586317e-08, 2.1200321498326957e-08, 2.2247149900067598e-08, 2.3293978301808238e-08, 2.434080670354888e-08, 2.538763510528952e-08, 2.643446350703016e-08, 2.74812919087708e-08, 2.852812031051144e-08, 2.957494871225208e-08, 3.062177711399272e-08, 3.166860551573336e-08, 3.2715433917474e-08, 3.376226231921464e-08, 3.480909072095528e-08, 3.585591912269592e-08]}, "gradients/graph_11conv2_bn.weight": {"_type": "histogram", "values": [1.0, 0.0, 0.0, 0.0, 1.0, 0.0, 0.0, 0.0, 1.0, 2.0, 2.0, 4.0, 3.0, 3.0, 2.0, 1.0, 2.0, 2.0, 6.0, 4.0, 3.0, 2.0, 5.0, 4.0, 6.0, 3.0, 4.0, 2.0, 6.0, 7.0, 3.0, 2.0, 3.0, 3.0, 4.0, 5.0, 3.0, 0.0, 2.0, 1.0, 1.0, 2.0, 1.0, 5.0, 1.0, 1.0, 0.0, 5.0, 0.0, 3.0, 2.0, 0.0, 1.0, 1.0, 1.0, 1.0, 0.0, 0.0, 0.0, 0.0, 0.0, 0.0, 0.0, 1.0], "bins": [-0.4484265148639679, -0.4328533113002777, -0.41728007793426514, -0.40170687437057495, -0.38613367080688477, -0.3705604672431946, -0.3549872636795044, -0.3394140303134918, -0.32384082674980164, -0.30826762318611145, -0.2926943898200989, -0.2771211862564087, -0.2615479826927185, -0.24597477912902832, -0.23040156066417694, -0.21482834219932556, -0.19925513863563538, -0.1836819350719452, -0.1681087166070938, -0.15253549814224243, -0.13696229457855225, -0.12138908356428146, -0.10581587255001068, -0.0902426615357399, -0.07466945052146912, -0.059096239507198334, -0.04352302849292755, -0.02794981747865677, -0.012376606464385986, 0.003196604549884796, 0.01876981556415558, 0.03434302657842636, 0.04991626739501953, 0.06548947840929031, 0.0810626894235611, 0.09663590043783188, 0.11220911145210266, 0.12778231501579285, 0.14335553348064423, 0.1589287519454956, 0.1745019555091858, 0.19007515907287598, 0.20564837753772736, 0.22122159600257874, 0.23679479956626892, 0.2523680031299591, 0.2679412364959717, 0.28351444005966187, 0.29908764362335205, 0.31466084718704224, 0.3302340507507324, 0.345807284116745, 0.3613804876804352, 0.37695369124412537, 0.39252692461013794, 0.4081001281738281, 0.4236733317375183, 0.4392465353012085, 0.4548197388648987, 0.47039297223091125, 0.48596617579460144, 0.501539409160614, 0.5171126127243042, 0.5326858162879944, 0.5482590198516846]}, "gradients/graph_11conv2_bn.bias": {"_type": "histogram", "values": [1.0, 0.0, 1.0, 1.0, 1.0, 1.0, 0.0, 0.0, 0.0, 0.0, 2.0, 2.0, 2.0, 2.0, 1.0, 1.0, 0.0, 2.0, 2.0, 2.0, 4.0, 0.0, 2.0, 0.0, 3.0, 7.0, 3.0, 2.0, 2.0, 4.0, 4.0, 4.0, 3.0, 3.0, 5.0, 3.0, 8.0, 4.0, 3.0, 9.0, 4.0, 2.0, 2.0, 3.0, 4.0, 0.0, 2.0, 3.0, 2.0, 2.0, 0.0, 0.0, 1.0, 1.0, 2.0, 0.0, 2.0, 0.0, 0.0, 0.0, 1.0, 0.0, 2.0, 1.0], "bins": [-0.12111867219209671, -0.11433406919240952, -0.10754946619272232, -0.10076486319303513, -0.09398026764392853, -0.08719566464424133, -0.08041106164455414, -0.07362645864486694, -0.06684185564517975, -0.060057252645492554, -0.05327264964580536, -0.04648805037140846, -0.03970344737172127, -0.03291884437203407, -0.026134243234992027, -0.01934964209794998, -0.012565039098262787, -0.005780437029898167, 0.0010041650384664536, 0.007788767106831074, 0.014573369175195694, 0.02135797217488289, 0.028142573311924934, 0.03492717444896698, 0.041711777448654175, 0.04849638044834137, 0.055280983448028564, 0.06206558272242546, 0.06885018944740295, 0.07563478499650955, 0.08241938799619675, 0.08920399099588394, 0.09598860144615173, 0.10277320444583893, 0.10955780744552612, 0.11634241044521332, 0.12312701344490051, 0.1299116164445877, 0.1366962194442749, 0.1434808224439621, 0.1502654254436493, 0.1570500135421753, 0.1638346165418625, 0.17061921954154968, 0.17740382254123688, 0.18418842554092407, 0.19097302854061127, 0.19775763154029846, 0.20454223453998566, 0.21132683753967285, 0.21811144053936005, 0.22489604353904724, 0.23168064653873444, 0.23846524953842163, 0.24524985253810883, 0.252034455537796, 0.258819043636322, 0.2656036615371704, 0.2723882496356964, 0.2791728675365448, 0.2859574556350708, 0.2927420735359192, 0.2995266616344452, 0.3063112795352936, 0.3130958676338196]}, "gradients/graph_11conv2.weight": {"_type": "histogram", "values": [1.0, 0.0, 0.0, 0.0, 3.0, 2.0, 4.0, 3.0, 4.0, 5.0, 12.0, 12.0, 20.0, 28.0, 28.0, 54.0, 70.0, 69.0, 98.0, 177.0, 179.0, 290.0, 345.0, 473.0, 566.0, 823.0, 1089.0, 1438.0, 1921.0, 2526.0, 3467.0, 4833.0, 7031.0, 10188.0, 14573.0, 18178.0, 17876.0, 14193.0, 9805.0, 6752.0, 4425.0, 2958.0, 2059.0, 1415.0, 995.0, 692.0, 455.0, 329.0, 210.0, 132.0, 80.0, 75.0, 43.0, 28.0, 12.0, 11.0, 9.0, 2.0, 2.0, 2.0, 1.0, 0.0, 0.0, 1.0], "bins": [-1.8609005212783813, -1.8092758655548096, -1.7576512098312378, -1.706026554107666, -1.6544018983840942, -1.6027772426605225, -1.5511525869369507, -1.499527931213379, -1.4479032754898071, -1.3962786197662354, -1.3446539640426636, -1.2930293083190918, -1.24140465259552, -1.1897799968719482, -1.1381553411483765, -1.0865306854248047, -1.0349059104919434, -0.9832813143730164, -0.9316566586494446, -0.8800320029258728, -0.828407347202301, -0.7767826914787292, -0.7251580357551575, -0.6735333800315857, -0.6219086647033691, -0.5702840089797974, -0.5186593532562256, -0.4670347273349762, -0.41541004180908203, -0.36378538608551025, -0.3121607303619385, -0.2605360746383667, -0.20891141891479492, -0.15728676319122314, -0.10566210001707077, -0.054037440568208694, -0.0024127811193466187, 0.04921187832951546, 0.10083653777837753, 0.1524612009525299, 0.20408585667610168, 0.25571051239967346, 0.30733516812324524, 0.358959823846817, 0.4105845093727112, 0.46220916509628296, 0.5138338208198547, 0.5654584765434265, 0.6170831322669983, 0.6687077879905701, 0.7203324437141418, 0.7719570994377136, 0.8235817551612854, 0.8752064108848572, 0.926831066608429, 0.9784557223320007, 1.0300804376602173, 1.081705093383789, 1.1333297491073608, 1.1849544048309326, 1.2365790605545044, 1.2882037162780762, 1.339828372001648, 1.3914530277252197, 1.4430776834487915]}, "gradients/graph_11conv2.bias": {"_type": "histogram", "values": [1.0, 0.0, 1.0, 0.0, 0.0, 0.0, 0.0, 1.0, 0.0, 0.0, 3.0, 0.0, 1.0, 1.0, 2.0, 2.0, 2.0, 0.0, 0.0, 2.0, 1.0, 5.0, 1.0, 4.0, 4.0, 5.0, 4.0, 1.0, 4.0, 5.0, 10.0, 3.0, 4.0, 4.0, 5.0, 2.0, 6.0, 2.0, 5.0, 3.0, 7.0, 7.0, 3.0, 5.0, 2.0, 1.0, 1.0, 1.0, 1.0, 0.0, 0.0, 1.0, 1.0, 1.0, 0.0, 2.0, 0.0, 0.0, 0.0, 0.0, 0.0, 0.0, 0.0, 1.0], "bins": [-1.4118850231170654e-06, -1.3683456927537918e-06, -1.3248063623905182e-06, -1.2812670320272446e-06, -1.237727701663971e-06, -1.1941883713006973e-06, -1.1506490409374237e-06, -1.10710971057415e-06, -1.0635703802108765e-06, -1.0200310498476028e-06, -9.764917194843292e-07, -9.329523891210556e-07, -8.89413058757782e-07, -8.458737283945084e-07, -8.023343980312347e-07, -7.587950676679611e-07, -7.152557373046875e-07, -6.717164069414139e-07, -6.281770765781403e-07, -5.846377462148666e-07, -5.41098415851593e-07, -4.975590854883194e-07, -4.540197551250458e-07, -4.1048042476177216e-07, -3.6694109439849854e-07, -3.234017640352249e-07, -2.798624336719513e-07, -2.3632310330867767e-07, -1.9278377294540405e-07, -1.4924444258213043e-07, -1.0570511221885681e-07, -6.216578185558319e-08, -1.862645149230957e-08, 2.491287887096405e-08, 6.845220923423767e-08, 1.1199153959751129e-07, 1.555308699607849e-07, 1.9907020032405853e-07, 2.4260953068733215e-07, 2.861488610506058e-07, 3.296881914138794e-07, 3.73227521777153e-07, 4.1676685214042664e-07, 4.6030618250370026e-07, 5.038455128669739e-07, 5.473848432302475e-07, 5.909241735935211e-07, 6.344635039567947e-07, 6.780028343200684e-07, 7.21542164683342e-07, 7.650814950466156e-07, 8.086208254098892e-07, 8.521601557731628e-07, 8.956994861364365e-07, 9.392388164997101e-07, 9.827781468629837e-07, 1.0263174772262573e-06, 1.069856807589531e-06, 1.1133961379528046e-06, 1.1569354683160782e-06, 1.2004747986793518e-06, 1.2440141290426254e-06, 1.287553459405899e-06, 1.3310927897691727e-06, 1.3746321201324463e-06]}, "gradients/graph_11conv1.weight": {"_type": "histogram", "values": [2.0, 1.0, 0.0, 0.0, 2.0, 3.0, 5.0, 5.0, 8.0, 4.0, 5.0, 7.0, 15.0, 16.0, 22.0, 33.0, 39.0, 45.0, 48.0, 76.0, 66.0, 82.0, 112.0, 121.0, 130.0, 145.0, 154.0, 148.0, 176.0, 152.0, 171.0, 148.0, 157.0, 129.0, 117.0, 114.0, 81.0, 80.0, 80.0, 52.0, 52.0, 53.0, 43.0, 37.0, 31.0, 17.0, 10.0, 12.0, 10.0, 8.0, 6.0, 5.0, 8.0, 5.0, 10.0, 4.0, 1.0, 2.0, 2.0, 2.0, 1.0, 1.0, 0.0, 1.0], "bins": [-5.260431289672852, -5.080316543579102, -4.90020227432251, -4.720088005065918, -4.539973258972168, -4.359858512878418, -4.179744243621826, -3.9996297359466553, -3.8195152282714844, -3.6394007205963135, -3.4592862129211426, -3.2791717052459717, -3.099057197570801, -2.91894268989563, -2.738828182220459, -2.558713674545288, -2.378599166870117, -2.1984846591949463, -2.0183701515197754, -1.8382556438446045, -1.6581411361694336, -1.4780266284942627, -1.2979121208190918, -1.117797613143921, -0.93768310546875, -0.7575685977935791, -0.5774540901184082, -0.3973395824432373, -0.2172250747680664, -0.03711056709289551, 0.1430039405822754, 0.3231184482574463, 0.503232479095459, 0.6833469867706299, 0.8634614944458008, 1.0435760021209717, 1.2236905097961426, 1.4038050174713135, 1.5839195251464844, 1.7640340328216553, 1.9441485404968262, 2.124263048171997, 2.304377555847168, 2.484492063522339, 2.6646065711975098, 2.8447210788726807, 3.0248355865478516, 3.2049500942230225, 3.3850646018981934, 3.5651791095733643, 3.745293617248535, 3.925408124923706, 4.105522632598877, 4.285636901855469, 4.465751647949219, 4.645866394042969, 4.8259806632995605, 5.006094932556152, 5.186209678649902, 5.366324424743652, 5.546438694000244, 5.726552963256836, 5.906667709350586, 6.086782455444336, 6.266896724700928]}, "gradients/graph_11conv1.bias": {"_type": "histogram", "values": [4.0, 4.0, 2.0, 1.0, 4.0, 3.0, 7.0, 1.0, 2.0, 2.0, 1.0, 0.0, 0.0, 1.0, 0.0, 1.0, 1.0, 1.0, 2.0, 0.0, 1.0, 2.0, 1.0, 0.0, 0.0, 1.0, 0.0, 2.0, 1.0, 0.0, 1.0, 0.0, 2.0, 1.0, 0.0, 1.0, 0.0, 2.0, 0.0, 0.0, 0.0, 0.0, 0.0, 0.0, 0.0, 2.0, 0.0, 1.0, 0.0, 0.0, 2.0, 1.0, 1.0, 0.0, 0.0, 0.0, 2.0, 0.0, 0.0, 1.0, 1.0, 0.0, 0.0, 1.0], "bins": [-5.696498394012451, -5.31624698638916, -4.935995578765869, -4.555744171142578, -4.175492763519287, -3.795241355895996, -3.414989948272705, -3.034738540649414, -2.654487133026123, -2.274235725402832, -1.893984317779541, -1.51373291015625, -1.133481502532959, -0.753230094909668, -0.37297868728637695, 0.0072727203369140625, 0.3875241279602051, 0.7677755355834961, 1.148026943206787, 1.5282783508300781, 1.9085297584533691, 2.28878116607666, 2.669032573699951, 3.049283981323242, 3.429535388946533, 3.809786796569824, 4.190038204193115, 4.570289611816406, 4.950541019439697, 5.330792427062988, 5.711043834686279, 6.09129524230957, 6.471546173095703, 6.851797580718994, 7.232048988342285, 7.612300395965576, 7.992551803588867, 8.372802734375, 8.75305461883545, 9.133306503295898, 9.513557434082031, 9.893808364868164, 10.274060249328613, 10.654312133789062, 11.034563064575195, 11.414813995361328, 11.795065879821777, 12.175317764282227, 12.55556869506836, 12.935819625854492, 13.316071510314941, 13.69632339477539, 14.076574325561523, 14.456825256347656, 14.837077140808105, 15.217329025268555, 15.597579956054688, 15.97783088684082, 16.358081817626953, 16.73833465576172, 17.11858558654785, 17.498836517333984, 17.87908935546875, 18.259340286254883, 18.639591217041016]}, "gradients/graph_10deconv5.weight": {"_type": "histogram", "values": [2.0, 2.0, 2.0, 1.0, 2.0, 3.0, 3.0, 5.0, 8.0, 12.0, 12.0, 7.0, 19.0, 34.0, 30.0, 40.0, 50.0, 63.0, 69.0, 79.0, 73.0, 110.0, 115.0, 123.0, 124.0, 154.0, 145.0, 152.0, 145.0, 152.0, 152.0, 117.0, 139.0, 124.0, 108.0, 101.0, 98.0, 78.0, 71.0, 74.0, 38.0, 32.0, 34.0, 42.0, 30.0, 21.0, 16.0, 16.0, 8.0, 11.0, 6.0, 5.0, 3.0, 1.0, 3.0, 1.0, 1.0, 3.0, 1.0, 0.0, 0.0, 0.0, 1.0, 1.0], "bins": [-0.3227347731590271, -0.31203410029411316, -0.3013334572315216, -0.29063278436660767, -0.2799321115016937, -0.2692314684391022, -0.25853079557418823, -0.2478301227092743, -0.23712946474552155, -0.2264288067817688, -0.21572813391685486, -0.2050274759531021, -0.19432681798934937, -0.18362614512443542, -0.17292548716068268, -0.16222481429576874, -0.151524156332016, -0.14082349836826324, -0.1301228255033493, -0.11942216753959656, -0.10872150212526321, -0.09802083671092987, -0.08732017874717712, -0.07661951333284378, -0.06591884791851044, -0.055218182504177094, -0.04451752081513405, -0.033816859126091, -0.02311619371175766, -0.012415530160069466, -0.0017148666083812714, 0.008985796943306923, 0.019686460494995117, 0.03038712404668331, 0.041087787598371506, 0.05178844928741455, 0.062489114701747894, 0.07318978011608124, 0.08389043807983398, 0.09459110349416733, 0.10529176890850067, 0.11599243432283401, 0.12669309973716736, 0.1373937577009201, 0.14809441566467285, 0.1587950885295868, 0.16949574649333954, 0.18019641935825348, 0.19089707732200623, 0.20159773528575897, 0.2122984081506729, 0.22299906611442566, 0.2336997389793396, 0.24440039694309235, 0.2551010549068451, 0.26580172777175903, 0.2765023708343506, 0.2872030436992645, 0.29790371656417847, 0.3086043894290924, 0.31930503249168396, 0.3300057053565979, 0.34070637822151184, 0.3514070212841034, 0.36210769414901733]}, "gradients/graph_10deconv5.bias": {"_type": "histogram", "values": [1.0, 0.0, 0.0, 0.0, 0.0, 0.0, 0.0, 0.0, 0.0, 0.0, 1.0, 0.0, 0.0, 0.0, 0.0, 0.0, 0.0, 0.0, 0.0, 0.0, 0.0, 0.0, 0.0, 0.0, 0.0, 0.0, 0.0, 0.0, 0.0, 0.0, 0.0, 0.0, 0.0, 0.0, 0.0, 0.0, 0.0, 0.0, 0.0, 0.0, 0.0, 0.0, 0.0, 0.0, 0.0, 0.0, 0.0, 0.0, 0.0, 0.0, 0.0, 0.0, 0.0, 0.0, 0.0, 0.0, 0.0, 0.0, 0.0, 0.0, 0.0, 0.0, 0.0, 1.0], "bins": [-0.16787290573120117, -0.16526688635349274, -0.1626608669757843, -0.16005483269691467, -0.15744881331920624, -0.1548427939414978, -0.15223677456378937, -0.14963074028491974, -0.1470247209072113, -0.14441870152950287, -0.14181268215179443, -0.1392066478729248, -0.13660062849521637, -0.13399460911750793, -0.1313885897397995, -0.12878255546092987, -0.12617653608322144, -0.123570516705513, -0.12096449732780457, -0.11835847049951553, -0.1157524511218071, -0.11314642429351807, -0.11054040491580963, -0.1079343780875206, -0.10532835870981216, -0.10272233188152313, -0.1001163125038147, -0.09751028567552567, -0.09490426629781723, -0.0922982394695282, -0.08969222009181976, -0.08708619326353073, -0.0844801664352417, -0.08187414705753326, -0.07926812767982483, -0.0766621008515358, -0.07405608147382736, -0.07145005464553833, -0.0688440352678299, -0.06623800843954086, -0.06363198906183243, -0.061025965958833694, -0.05841994285583496, -0.05581391975283623, -0.053207896649837494, -0.05060187354683876, -0.04799585044384003, -0.04538982734084129, -0.04278380423784256, -0.040177781134843826, -0.03757175803184509, -0.03496573492884636, -0.032359711825847626, -0.02975369058549404, -0.027147667482495308, -0.024541644379496574, -0.02193562127649784, -0.019329598173499107, -0.016723575070500374, -0.014117552898824215, -0.011511529795825481, -0.008905506692826748, -0.006299484055489302, -0.003693461185321212, -0.001087438315153122]}, "gradients/graph_10deconv4_bn.weight": {"_type": "histogram", "values": [1.0, 0.0, 0.0, 0.0, 1.0, 0.0, 0.0, 0.0, 1.0, 0.0, 0.0, 1.0, 1.0, 0.0, 2.0, 0.0, 1.0, 1.0, 0.0, 0.0, 2.0, 3.0, 1.0, 5.0, 2.0, 0.0, 5.0, 1.0, 1.0, 0.0, 2.0, 4.0, 2.0, 2.0, 1.0, 3.0, 4.0, 5.0, 1.0, 2.0, 1.0, 1.0, 0.0, 0.0, 1.0, 0.0, 0.0, 0.0, 0.0, 0.0, 2.0, 1.0, 1.0, 0.0, 1.0, 0.0, 0.0, 0.0, 0.0, 0.0, 0.0, 0.0, 0.0, 1.0], "bins": [-0.14465099573135376, -0.14168155193328857, -0.1387121081352234, -0.1357426643371582, -0.13277322053909302, -0.12980376183986664, -0.12683431804180145, -0.12386487424373627, -0.12089543044567108, -0.1179259866476059, -0.11495654284954071, -0.11198709160089493, -0.10901764780282974, -0.10604820400476456, -0.10307875275611877, -0.10010930895805359, -0.0971398651599884, -0.09417042136192322, -0.09120097756385803, -0.08823152631521225, -0.08526208251714706, -0.08229263871908188, -0.0793231874704361, -0.07635374367237091, -0.07338429987430573, -0.07041485607624054, -0.06744541227817535, -0.06447596102952957, -0.061506517231464386, -0.0585370734333992, -0.055567625910043716, -0.05259817838668823, -0.04962872713804245, -0.046659283339977264, -0.04368983581662178, -0.040720388293266296, -0.03775094449520111, -0.034781500697135925, -0.03181205317378044, -0.028842607513070107, -0.02587316185235977, -0.022903716191649437, -0.019934270530939102, -0.016964824870228767, -0.013995379209518433, -0.011025933548808098, -0.008056487888097763, -0.005087042227387428, -0.0021175965666770935, 0.0008518490940332413, 0.003821294754743576, 0.006790740415453911, 0.009760186076164246, 0.01272963173687458, 0.015699077397584915, 0.01866852305829525, 0.021637968719005585, 0.02460741437971592, 0.027576860040426254, 0.03054630570113659, 0.033515751361846924, 0.03648519515991211, 0.03945464268326759, 0.04242409020662308, 0.04539353400468826]}, "gradients/graph_10deconv4_bn.bias": {"_type": "histogram", "values": [2.0, 1.0, 0.0, 0.0, 0.0, 2.0, 1.0, 1.0, 0.0, 0.0, 0.0, 0.0, 0.0, 1.0, 0.0, 1.0, 0.0, 2.0, 1.0, 2.0, 0.0, 1.0, 3.0, 0.0, 2.0, 0.0, 1.0, 3.0, 2.0, 2.0, 0.0, 3.0, 3.0, 0.0, 2.0, 2.0, 1.0, 1.0, 4.0, 2.0, 2.0, 1.0, 2.0, 1.0, 0.0, 3.0, 0.0, 1.0, 0.0, 1.0, 2.0, 1.0, 1.0, 1.0, 0.0, 1.0, 0.0, 0.0, 0.0, 0.0, 0.0, 0.0, 0.0, 1.0], "bins": [-0.08668219298124313, -0.08480937778949738, -0.08293655514717102, -0.08106373995542526, -0.0791909247636795, -0.07731810957193375, -0.07544528692960739, -0.07357247173786163, -0.07169965654611588, -0.06982683390378952, -0.06795401871204376, -0.066081203520298, -0.06420838832855225, -0.06233556941151619, -0.06046275049448013, -0.058589935302734375, -0.05671711638569832, -0.05484429746866226, -0.052971482276916504, -0.05109866335988045, -0.04922584816813469, -0.04735302925109863, -0.045480214059352875, -0.04360739514231682, -0.04173457622528076, -0.039861761033535004, -0.03798894211649895, -0.03611612692475319, -0.03424330800771713, -0.032370492815971375, -0.030497673898935318, -0.02862485684454441, -0.026752043515443802, -0.024879226461052895, -0.023006409406661987, -0.02113359235227108, -0.019260775297880173, -0.017387956380844116, -0.015515139326453209, -0.013642322272062302, -0.011769505217671394, -0.009896688163280487, -0.00802387110888958, -0.006151053123176098, -0.004278236068785191, -0.0024054187815636396, -0.0005326014943420887, 0.0013402157928794622, 0.003213033080101013, 0.0050858501344919205, 0.006958667654544115, 0.00883148517459631, 0.010704302228987217, 0.012577119283378124, 0.014449937269091606, 0.016322754323482513, 0.01819557137787342, 0.020068388432264328, 0.021941205486655235, 0.023814022541046143, 0.0256868414580822, 0.027559658512473106, 0.029432475566864014, 0.03130529075860977, 0.03317810967564583]}, "gradients/graph_10deconv4.weight": {"_type": "histogram", "values": [1.0, 0.0, 0.0, 5.0, 3.0, 6.0, 13.0, 15.0, 25.0, 50.0, 68.0, 90.0, 122.0, 165.0, 234.0, 385.0, 506.0, 665.0, 836.0, 1090.0, 1457.0, 1923.0, 2392.0, 2921.0, 3663.0, 4232.0, 5118.0, 5781.0, 6500.0, 6980.0, 7590.0, 7674.0, 7930.0, 7713.0, 7436.0, 6969.0, 6529.0, 5942.0, 5221.0, 4533.0, 3832.0, 3266.0, 2665.0, 2093.0, 1728.0, 1336.0, 947.0, 749.0, 505.0, 362.0, 265.0, 181.0, 109.0, 103.0, 53.0, 24.0, 29.0, 24.0, 5.0, 5.0, 4.0, 0.0, 1.0, 3.0], "bins": [-0.3348572850227356, -0.32459568977355957, -0.31433406472206116, -0.30407246947288513, -0.2938108444213867, -0.2835492491722107, -0.2732876241207123, -0.26302602887153625, -0.25276440382003784, -0.24250280857086182, -0.2322411984205246, -0.22197958827018738, -0.21171799302101135, -0.20145638287067413, -0.19119477272033691, -0.1809331625699997, -0.17067155241966248, -0.16040994226932526, -0.15014833211898804, -0.13988672196865082, -0.1296251118183136, -0.11936350911855698, -0.10910190641880035, -0.09884029626846313, -0.08857868611812592, -0.0783170759677887, -0.06805546581745148, -0.057793863117694855, -0.047532252967357635, -0.037270642817020416, -0.027009036391973495, -0.016747428104281425, -0.0064858198165893555, 0.0037757884711027145, 0.014037396758794785, 0.024299005046486855, 0.034560613334178925, 0.044822223484516144, 0.055083829909563065, 0.06534543633460999, 0.0756070464849472, 0.08586865663528442, 0.09613026678562164, 0.10639186948537827, 0.11665347963571548, 0.1269150823354721, 0.13717669248580933, 0.14743830263614655, 0.15769991278648376, 0.16796152293682098, 0.1782231330871582, 0.18848474323749542, 0.19874635338783264, 0.20900794863700867, 0.2192695587873459, 0.2295311689376831, 0.23979277908802032, 0.25005438923835754, 0.26031598448753357, 0.270577609539032, 0.280839204788208, 0.2911008298397064, 0.30136242508888245, 0.31162405014038086, 0.3218856453895569]}, "gradients/graph_10deconv4.bias": {"_type": "histogram", "values": [1.0, 1.0, 0.0, 0.0, 1.0, 1.0, 0.0, 0.0, 0.0, 0.0, 0.0, 0.0, 1.0, 0.0, 0.0, 0.0, 1.0, 1.0, 1.0, 0.0, 2.0, 2.0, 3.0, 2.0, 5.0, 2.0, 3.0, 3.0, 5.0, 3.0, 3.0, 3.0, 2.0, 1.0, 1.0, 1.0, 2.0, 2.0, 2.0, 0.0, 1.0, 2.0, 1.0, 0.0, 1.0, 0.0, 0.0, 1.0, 1.0, 0.0, 1.0, 0.0, 0.0, 0.0, 0.0, 0.0, 0.0, 0.0, 0.0, 0.0, 0.0, 0.0, 0.0, 1.0], "bins": [-1.7527054296806455e-07, -1.6892988696781686e-07, -1.6258923096756916e-07, -1.5624857496732147e-07, -1.4990791896707378e-07, -1.435672629668261e-07, -1.372266069665784e-07, -1.308859509663307e-07, -1.2454529496608302e-07, -1.1820463896583533e-07, -1.1186398296558764e-07, -1.0552332696533995e-07, -9.918267096509226e-08, -9.284201496484457e-08, -8.650135896459688e-08, -8.016070296434918e-08, -7.382004696410149e-08, -6.74793909638538e-08, -6.113873496360611e-08, -5.479807896335842e-08, -4.845742296311073e-08, -4.211676696286304e-08, -3.577611096261535e-08, -2.9435454962367658e-08, -2.3094798962119967e-08, -1.6754142961872276e-08, -1.0413486961624585e-08, -4.072830961376894e-09, 2.2678250388707966e-09, 8.608481039118487e-09, 1.4949137039366178e-08, 2.128979303961387e-08, 2.763044903986156e-08, 3.397110504010925e-08, 4.031176104035694e-08, 4.665241704060463e-08, 5.299307304085232e-08, 5.9333729041100014e-08, 6.56743850413477e-08, 7.20150410415954e-08, 7.835569704184309e-08, 8.469635304209078e-08, 9.103700904233847e-08, 9.737766504258616e-08, 1.0371832104283385e-07, 1.1005897704308154e-07, 1.1639963304332923e-07, 1.2274028904357692e-07, 1.290809450438246e-07, 1.354216010440723e-07, 1.4176225704432e-07, 1.4810291304456769e-07, 1.5444356904481538e-07, 1.6078422504506307e-07, 1.6712488104531076e-07, 1.7346553704555845e-07, 1.7980619304580614e-07, 1.8614684904605383e-07, 1.9248750504630152e-07, 1.988281610465492e-07, 2.051688170467969e-07, 2.115094730470446e-07, 2.1785012904729228e-07, 2.2419078504753998e-07, 2.3053144104778767e-07]}, "gradients/graph_10deconv3_bn.weight": {"_type": "histogram", "values": [1.0, 0.0, 0.0, 0.0, 0.0, 1.0, 1.0, 0.0, 0.0, 0.0, 0.0, 2.0, 0.0, 0.0, 1.0, 0.0, 0.0, 3.0, 3.0, 3.0, 4.0, 1.0, 2.0, 3.0, 2.0, 4.0, 1.0, 4.0, 5.0, 6.0, 2.0, 4.0, 6.0, 3.0, 1.0, 5.0, 3.0, 3.0, 5.0, 5.0, 0.0, 6.0, 1.0, 3.0, 6.0, 4.0, 0.0, 1.0, 5.0, 0.0, 2.0, 2.0, 1.0, 4.0, 2.0, 1.0, 1.0, 0.0, 1.0, 0.0, 1.0, 2.0, 0.0, 1.0], "bins": [-0.15751002728939056, -0.15304142236709595, -0.14857283234596252, -0.1441042274236679, -0.1396356225013733, -0.13516701757907867, -0.13069841265678406, -0.12622982263565063, -0.12176121771335602, -0.1172926127910614, -0.11282401531934738, -0.10835541784763336, -0.10388681292533875, -0.09941820800304413, -0.09494961053133011, -0.09048101305961609, -0.08601240813732147, -0.08154380321502686, -0.07707520574331284, -0.07260660827159882, -0.0681380033493042, -0.06366939842700958, -0.05920080095529556, -0.054732199758291245, -0.050263598561286926, -0.04579499736428261, -0.04132639616727829, -0.03685779497027397, -0.03238919377326965, -0.027920592576265335, -0.023451991379261017, -0.0189833901822567, -0.014514774084091187, -0.010046172887086868, -0.00557757169008255, -0.0011089704930782318, 0.0033596307039260864, 0.007828231900930405, 0.012296833097934723, 0.01676543429493904, 0.02123403549194336, 0.025702636688947678, 0.030171237885951996, 0.034639839082956314, 0.03910844027996063, 0.04357704147696495, 0.04804564267396927, 0.05251424387097359, 0.056982845067977905, 0.061451446264982224, 0.06592004746198654, 0.07038864493370056, 0.07485724985599518, 0.0793258547782898, 0.08379445225000381, 0.08826304972171783, 0.09273165464401245, 0.09720025956630707, 0.10166885703802109, 0.10613745450973511, 0.11060605943202972, 0.11507466435432434, 0.11954326182603836, 0.12401185929775238, 0.128480464220047]}, "gradients/graph_10deconv3_bn.bias": {"_type": "histogram", "values": [1.0, 0.0, 0.0, 0.0, 1.0, 0.0, 0.0, 2.0, 0.0, 0.0, 0.0, 1.0, 1.0, 1.0, 0.0, 0.0, 3.0, 0.0, 3.0, 1.0, 7.0, 2.0, 1.0, 3.0, 0.0, 6.0, 2.0, 6.0, 8.0, 4.0, 7.0, 5.0, 2.0, 3.0, 7.0, 6.0, 5.0, 5.0, 3.0, 2.0, 0.0, 3.0, 5.0, 2.0, 3.0, 2.0, 2.0, 1.0, 3.0, 0.0, 2.0, 3.0, 1.0, 1.0, 0.0, 0.0, 0.0, 0.0, 0.0, 1.0, 0.0, 0.0, 0.0, 1.0], "bins": [-0.15691502392292023, -0.1521288901567459, -0.1473427563905716, -0.14255662262439728, -0.13777050375938416, -0.13298436999320984, -0.12819823622703552, -0.1234121024608612, -0.11862596869468689, -0.11383983492851257, -0.10905370116233826, -0.10426757484674454, -0.09948144108057022, -0.0946953073143959, -0.08990918099880219, -0.08512304723262787, -0.08033691346645355, -0.07555077970027924, -0.07076464593410492, -0.0659785196185112, -0.061192385852336884, -0.05640625208616257, -0.05162012204527855, -0.04683399200439453, -0.042047858238220215, -0.0372617244720459, -0.03247559443116188, -0.027689462527632713, -0.022903330624103546, -0.01811719872057438, -0.013331066817045212, -0.008544934913516045, -0.0037588030099868774, 0.0010273288935422897, 0.005813460797071457, 0.010599592700600624, 0.015385724604129791, 0.02017185650765896, 0.024957988411188126, 0.029744120314717293, 0.03453025221824646, 0.039316385984420776, 0.044102516025304794, 0.04888864606618881, 0.05367477983236313, 0.058460913598537445, 0.06324703991413116, 0.06803317368030548, 0.0728193074464798, 0.07760544121265411, 0.08239157497882843, 0.08717770129442215, 0.09196383506059647, 0.09674996882677078, 0.1015360951423645, 0.10632222890853882, 0.11110836267471313, 0.11589449644088745, 0.12068063020706177, 0.12546676397323608, 0.1302528977394104, 0.13503901660442352, 0.13982515037059784, 0.14461128413677216, 0.14939741790294647]}, "gradients/graph_10deconv3.weight": {"_type": "histogram", "values": [2.0, 1.0, 0.0, 3.0, 2.0, 7.0, 6.0, 6.0, 24.0, 29.0, 36.0, 39.0, 48.0, 46.0, 53.0, 94.0, 145.0, 219.0, 296.0, 439.0, 618.0, 834.0, 1276.0, 1724.0, 2347.0, 3394.0, 4777.0, 6545.0, 8987.0, 12734.0, 18219.0, 25541.0, 36828.0, 55488.0, 94844.0, 85953.0, 48873.0, 33502.0, 23469.0, 16723.0, 11852.0, 8306.0, 5884.0, 4082.0, 2854.0, 1986.0, 1608.0, 1150.0, 757.0, 535.0, 346.0, 264.0, 181.0, 130.0, 78.0, 30.0, 32.0, 22.0, 9.0, 2.0, 2.0, 4.0, 2.0, 1.0], "bins": [-0.15113884210586548, -0.14680518209934235, -0.1424715220928192, -0.13813787698745728, -0.13380421698093414, -0.129470556974411, -0.12513691186904907, -0.12080325186252594, -0.11646959185600281, -0.11213593184947968, -0.10780227929353714, -0.1034686267375946, -0.09913496673107147, -0.09480130672454834, -0.0904676541686058, -0.08613400161266327, -0.08180034160614014, -0.077466681599617, -0.07313302904367447, -0.06879937648773193, -0.0644657164812088, -0.06013206019997597, -0.055798403918743134, -0.0514647476375103, -0.047131091356277466, -0.04279743507504463, -0.0384637787938118, -0.034130122512578964, -0.02979646623134613, -0.025462809950113297, -0.021129153668880463, -0.01679549738764763, -0.012461826205253601, -0.008128169924020767, -0.0037945136427879333, 0.0005391426384449005, 0.004872798919677734, 0.009206455200910568, 0.013540111482143402, 0.017873767763376236, 0.02220742404460907, 0.026541080325841904, 0.030874736607074738, 0.03520839288830757, 0.039542049169540405, 0.04387570545077324, 0.04820936173200607, 0.05254301801323891, 0.05687667429447174, 0.061210330575704575, 0.06554398685693741, 0.06987763941287994, 0.07421129941940308, 0.07854495942592621, 0.08287861198186874, 0.08721226453781128, 0.09154592454433441, 0.09587958455085754, 0.10021323710680008, 0.10454688966274261, 0.10888054966926575, 0.11321420967578888, 0.11754786223173141, 0.12188151478767395, 0.12621517479419708]}, "gradients/graph_10deconv3.bias": {"_type": "histogram", "values": [1.0, 0.0, 0.0, 0.0, 0.0, 0.0, 0.0, 0.0, 0.0, 0.0, 0.0, 0.0, 1.0, 0.0, 0.0, 0.0, 0.0, 2.0, 5.0, 1.0, 0.0, 0.0, 2.0, 1.0, 3.0, 3.0, 3.0, 5.0, 2.0, 3.0, 3.0, 2.0, 6.0, 7.0, 7.0, 10.0, 4.0, 3.0, 5.0, 3.0, 4.0, 7.0, 4.0, 6.0, 2.0, 5.0, 3.0, 1.0, 2.0, 4.0, 1.0, 2.0, 0.0, 2.0, 1.0, 0.0, 1.0, 0.0, 0.0, 0.0, 0.0, 0.0, 0.0, 1.0], "bins": [-2.8729118639603257e-08, -2.7932799184782198e-08, -2.7136479729961138e-08, -2.634016027514008e-08, -2.554384082031902e-08, -2.474752136549796e-08, -2.39512019106769e-08, -2.315488245585584e-08, -2.235856300103478e-08, -2.1562243546213722e-08, -2.0765924091392662e-08, -1.9969604636571603e-08, -1.9173285181750543e-08, -1.8376965726929484e-08, -1.7580646272108424e-08, -1.6784326817287365e-08, -1.5988007362466305e-08, -1.5191687907645246e-08, -1.4395368452824187e-08, -1.3599048998003127e-08, -1.2802729543182068e-08, -1.2006410088361008e-08, -1.1210090633539949e-08, -1.0413771178718889e-08, -9.61745172389783e-09, -8.82113226907677e-09, -8.02481281425571e-09, -7.228493359434651e-09, -6.432173904613592e-09, -5.635854449792532e-09, -4.839534994971473e-09, -4.043215540150413e-09, -3.246896085329354e-09, -2.4505766305082943e-09, -1.6542571756872348e-09, -8.579377208661754e-10, -6.161826604511589e-11, 7.347011887759436e-10, 1.531020643597003e-09, 2.3273400984180626e-09, 3.123659553239122e-09, 3.9199790080601815e-09, 4.716298462881241e-09, 5.5126179177023005e-09, 6.30893737252336e-09, 7.1052568273444194e-09, 7.901576282165479e-09, 8.697895736986538e-09, 9.494215191807598e-09, 1.0290534646628657e-08, 1.1086854101449717e-08, 1.1883173556270776e-08, 1.2679493011091836e-08, 1.3475812465912895e-08, 1.4272131920733955e-08, 1.5068451375555014e-08, 1.5864770830376074e-08, 1.6661090285197133e-08, 1.7457409740018193e-08, 1.8253729194839252e-08, 1.905004864966031e-08, 1.984636810448137e-08, 2.064268755930243e-08, 2.143900701412349e-08, 2.223532646894455e-08]}, "gradients/graph_10deconv2_bn.weight": {"_type": "histogram", "values": [1.0, 0.0, 0.0, 0.0, 0.0, 0.0, 0.0, 0.0, 0.0, 0.0, 1.0, 0.0, 1.0, 0.0, 0.0, 3.0, 0.0, 4.0, 0.0, 4.0, 1.0, 4.0, 4.0, 3.0, 3.0, 6.0, 8.0, 7.0, 9.0, 8.0, 13.0, 8.0, 6.0, 14.0, 9.0, 17.0, 19.0, 20.0, 16.0, 7.0, 9.0, 3.0, 9.0, 6.0, 8.0, 7.0, 1.0, 4.0, 2.0, 1.0, 2.0, 3.0, 2.0, 0.0, 0.0, 0.0, 0.0, 0.0, 2.0, 0.0, 0.0, 0.0, 0.0, 1.0], "bins": [-0.07296668738126755, -0.07086125016212463, -0.06875581294298172, -0.0666503757238388, -0.06454493850469589, -0.06243949756026268, -0.060334060341119766, -0.05822862312197685, -0.05612318217754364, -0.054017744958400726, -0.05191230773925781, -0.0498068705201149, -0.047701433300971985, -0.04559599608182907, -0.04349055513739586, -0.041385117918252945, -0.03927968069911003, -0.03717424347996712, -0.035068806260824203, -0.03296336531639099, -0.030857928097248077, -0.028752490878105164, -0.02664705365896225, -0.024541614577174187, -0.022436177358031273, -0.02033074013888836, -0.018225301057100296, -0.016119863837957382, -0.014014425687491894, -0.011908987537026405, -0.009803550317883492, -0.007698112167418003, -0.005592674016952515, -0.00348723609931767, -0.001381798181682825, 0.0007236397359520197, 0.0028290776535868645, 0.004934515804052353, 0.007039953488856554, 0.009145391173660755, 0.011250829324126244, 0.013356267474591732, 0.01546170562505722, 0.017567142844200134, 0.019672580063343048, 0.02177801914513111, 0.023883456364274025, 0.025988895446062088, 0.028094332665205002, 0.030199769884347916, 0.03230520710349083, 0.03441064804792404, 0.036516085267066956, 0.03862152248620987, 0.04072695970535278, 0.0428323969244957, 0.04493783414363861, 0.04704327508807182, 0.04914871230721474, 0.05125414952635765, 0.053359586745500565, 0.05546502396464348, 0.05757046490907669, 0.059675902128219604, 0.06178133934736252]}, "gradients/graph_10deconv2_bn.bias": {"_type": "histogram", "values": [1.0, 0.0, 0.0, 0.0, 0.0, 0.0, 0.0, 1.0, 0.0, 0.0, 0.0, 1.0, 1.0, 2.0, 1.0, 2.0, 2.0, 4.0, 1.0, 5.0, 4.0, 7.0, 5.0, 9.0, 5.0, 13.0, 8.0, 19.0, 12.0, 16.0, 4.0, 8.0, 17.0, 13.0, 9.0, 8.0, 10.0, 8.0, 11.0, 8.0, 6.0, 7.0, 4.0, 5.0, 2.0, 2.0, 1.0, 2.0, 2.0, 2.0, 0.0, 3.0, 0.0, 0.0, 1.0, 0.0, 0.0, 0.0, 2.0, 0.0, 1.0, 0.0, 0.0, 1.0], "bins": [-0.03675961121916771, -0.03554755449295044, -0.03433549776673317, -0.0331234410405159, -0.03191138431429863, -0.03069932572543621, -0.02948726899921894, -0.02827521227300167, -0.02706315368413925, -0.025851096957921982, -0.024639040231704712, -0.023426983505487442, -0.022214926779270172, -0.021002870053052902, -0.019790811464190483, -0.018578754737973213, -0.017366698011755943, -0.016154641285538673, -0.014942583627998829, -0.013730526901781559, -0.012518469244241714, -0.011306412518024445, -0.010094355791807175, -0.00888229813426733, -0.00767024140805006, -0.006458184216171503, -0.005246127024292946, -0.004034070298075676, -0.0028220131061971188, -0.0016099560307338834, -0.000397898955270648, 0.0008141581201925874, 0.0020262151956558228, 0.00323827238753438, 0.004450329579412937, 0.005662386305630207, 0.006874443497508764, 0.008086500689387321, 0.009298557415604591, 0.010510615073144436, 0.011722671799361706, 0.012934728525578976, 0.01414678618311882, 0.01535884290933609, 0.01657089963555336, 0.01778295636177063, 0.01899501495063305, 0.02020707167685032, 0.02141912840306759, 0.02263118512928486, 0.02384324185550213, 0.025055300444364548, 0.026267357170581818, 0.027479413896799088, 0.028691470623016357, 0.029903527349233627, 0.031115584075450897, 0.03232764080166817, 0.03353969752788544, 0.034751757979393005, 0.035963814705610275, 0.037175871431827545, 0.038387928158044815, 0.039599984884262085, 0.040812041610479355]}, "gradients/graph_10deconv2.weight": {"_type": "histogram", "values": [1.0, 0.0, 0.0, 0.0, 0.0, 2.0, 1.0, 5.0, 4.0, 13.0, 22.0, 26.0, 34.0, 61.0, 95.0, 128.0, 226.0, 255.0, 399.0, 554.0, 861.0, 1394.0, 2141.0, 3256.0, 5250.0, 9093.0, 17237.0, 36152.0, 84310.0, 231472.0, 1238783.0, 277743.0, 101004.0, 42974.0, 19853.0, 9771.0, 5519.0, 3185.0, 1974.0, 1193.0, 724.0, 490.0, 329.0, 208.0, 144.0, 97.0, 53.0, 35.0, 25.0, 15.0, 16.0, 5.0, 7.0, 3.0, 1.0, 1.0, 4.0, 1.0, 1.0, 0.0, 0.0, 1.0, 0.0, 1.0], "bins": [-0.022793935611844063, -0.022048408165574074, -0.021302880719304085, -0.020557353273034096, -0.019811823964118958, -0.01906629651784897, -0.01832076907157898, -0.01757524162530899, -0.016829714179039, -0.016084186732769012, -0.015338659286499023, -0.01459313090890646, -0.01384760346263647, -0.013102076016366482, -0.012356547638773918, -0.01161102019250393, -0.01086549274623394, -0.010119965299963951, -0.009374437853693962, -0.008628909476101398, -0.00788338202983141, -0.0071378545835614204, -0.006392326671630144, -0.005646798759698868, -0.004901271313428879, -0.00415574386715889, -0.0034102159552276134, -0.0026646882761269808, -0.0019191605970263481, -0.0011736329179257154, -0.0004281052388250828, 0.0003174224402755499, 0.0010629519820213318, 0.0018084796611219645, 0.002554007340222597, 0.00329953501932323, 0.0040450626984238625, 0.0047905901446938515, 0.005536118056625128, 0.006281645968556404, 0.007027173414826393, 0.007772700861096382, 0.008518228307366371, 0.009263756684958935, 0.010009284131228924, 0.010754811577498913, 0.011500339955091476, 0.012245867401361465, 0.012991394847631454, 0.013736922293901443, 0.014482449740171432, 0.015227978117763996, 0.01597350463271141, 0.01671903394162655, 0.017464561387896538, 0.018210088834166527, 0.018955616280436516, 0.019701143726706505, 0.020446671172976494, 0.021192198619246483, 0.02193772792816162, 0.02268325537443161, 0.0234287828207016, 0.024174310266971588, 0.024919837713241577]}, "gradients/graph_10deconv2.bias": {"_type": "histogram", "values": [1.0, 0.0, 0.0, 0.0, 0.0, 0.0, 0.0, 0.0, 0.0, 0.0, 0.0, 0.0, 0.0, 1.0, 1.0, 0.0, 0.0, 1.0, 2.0, 2.0, 0.0, 0.0, 2.0, 1.0, 0.0, 2.0, 1.0, 7.0, 3.0, 3.0, 5.0, 12.0, 11.0, 18.0, 17.0, 29.0, 25.0, 29.0, 16.0, 15.0, 18.0, 10.0, 7.0, 4.0, 5.0, 2.0, 1.0, 0.0, 2.0, 0.0, 0.0, 1.0, 0.0, 0.0, 0.0, 0.0, 0.0, 1.0, 0.0, 0.0, 0.0, 0.0, 0.0, 1.0], "bins": [-3.899913281202316e-09, -3.792592906393111e-09, -3.6852725315839052e-09, -3.5779521567746997e-09, -3.470631781965494e-09, -3.3633114071562886e-09, -3.255991032347083e-09, -3.1486706575378776e-09, -3.041350282728672e-09, -2.9340299079194665e-09, -2.826709533110261e-09, -2.7193891583010554e-09, -2.61206878349185e-09, -2.5047484086826444e-09, -2.397428033873439e-09, -2.2901076590642333e-09, -2.1827872842550278e-09, -2.0754669094458222e-09, -1.9681465346366167e-09, -1.8608261598274112e-09, -1.7535057850182056e-09, -1.6461854102090001e-09, -1.5388650353997946e-09, -1.431544660590589e-09, -1.3242242857813835e-09, -1.216903910972178e-09, -1.1095835361629725e-09, -1.002263161353767e-09, -8.949427865445614e-10, -7.876224117353559e-10, -6.803020369261503e-10, -5.729816621169448e-10, -4.656612873077393e-10, -3.583409124985337e-10, -2.510205376893282e-10, -1.4370016288012266e-10, -3.637978807091713e-11, 7.09405867382884e-11, 1.7826096154749393e-10, 2.8558133635669947e-10, 3.92901711165905e-10, 5.002220859751105e-10, 6.075424607843161e-10, 7.148628355935216e-10, 8.221832104027271e-10, 9.295035852119327e-10, 1.0368239600211382e-09, 1.1441443348303437e-09, 1.2514647096395493e-09, 1.3587850844487548e-09, 1.4661054592579603e-09, 1.5734258340671659e-09, 1.6807462088763714e-09, 1.788066583685577e-09, 1.8953869584947824e-09, 2.002707333303988e-09, 2.1100277081131935e-09, 2.217348082922399e-09, 2.3246684577316046e-09, 2.43198883254081e-09, 2.5393092073500156e-09, 2.646629582159221e-09, 2.7539499569684267e-09, 2.8612703317776322e-09, 2.9685907065868378e-09]}, "gradients/graph_10deconv1_bn.weight": {"_type": "histogram", "values": [1.0, 0.0, 0.0, 0.0, 0.0, 1.0, 0.0, 0.0, 1.0, 1.0, 2.0, 3.0, 1.0, 5.0, 5.0, 3.0, 5.0, 7.0, 6.0, 12.0, 11.0, 10.0, 16.0, 20.0, 18.0, 20.0, 16.0, 25.0, 29.0, 18.0, 38.0, 23.0, 20.0, 27.0, 20.0, 21.0, 13.0, 19.0, 15.0, 6.0, 12.0, 10.0, 14.0, 6.0, 6.0, 5.0, 3.0, 4.0, 3.0, 2.0, 3.0, 1.0, 3.0, 0.0, 0.0, 0.0, 0.0, 0.0, 1.0, 0.0, 0.0, 0.0, 0.0, 1.0], "bins": [-0.010619331151247025, -0.010273108258843422, -0.009926884435117245, -0.009580661542713642, -0.00923443865031004, -0.008888214826583862, -0.00854199193418026, -0.008195769041776657, -0.00784954521805048, -0.007503322325646877, -0.007157098967581987, -0.0068108756095170975, -0.006464652717113495, -0.006118429359048605, -0.005772206000983715, -0.0054259831085801125, -0.0050797597505152225, -0.004733536392450333, -0.00438731350004673, -0.00404109014198184, -0.0036948667839169502, -0.003348643658682704, -0.0030024205334484577, -0.002656197175383568, -0.0023099740501493216, -0.0019637509249150753, -0.0016175275668501854, -0.0012713044416159391, -0.0009250811999663711, -0.000578857958316803, -0.0002326347748748958, 0.00011358843767084181, 0.00045981165021657944, 0.0008060348918661475, 0.0011522581335157156, 0.0014984812587499619, 0.00184470450039953, 0.002190927742049098, 0.0025371508672833443, 0.002883374225348234, 0.0032295973505824804, 0.0035758204758167267, 0.003922043833881617, 0.0042682671919465065, 0.004614490084350109, 0.004960713442414999, 0.005306936800479889, 0.0056531596928834915, 0.005999383050948381, 0.006345606409013271, 0.006691829301416874, 0.007038052659481764, 0.007384276017546654, 0.007730498909950256, 0.008076722733676434, 0.008422945626080036, 0.008769168518483639, 0.009115392342209816, 0.009461615234613419, 0.009807838127017021, 0.010154061950743198, 0.010500284843146801, 0.010846507735550404, 0.01119273155927658, 0.011538954451680183]}, "gradients/graph_10deconv1_bn.bias": {"_type": "histogram", "values": [2.0, 1.0, 0.0, 0.0, 0.0, 0.0, 2.0, 0.0, 0.0, 1.0, 2.0, 3.0, 2.0, 0.0, 4.0, 10.0, 5.0, 6.0, 5.0, 10.0, 11.0, 12.0, 8.0, 16.0, 24.0, 19.0, 18.0, 23.0, 21.0, 23.0, 15.0, 20.0, 14.0, 21.0, 12.0, 20.0, 18.0, 23.0, 10.0, 14.0, 11.0, 13.0, 17.0, 12.0, 6.0, 5.0, 7.0, 7.0, 8.0, 5.0, 5.0, 6.0, 7.0, 1.0, 3.0, 1.0, 0.0, 0.0, 0.0, 1.0, 0.0, 1.0, 0.0, 1.0], "bins": [-0.00786694884300232, -0.007609672378748655, -0.007352395914494991, -0.007095119450241327, -0.006837842985987663, -0.0065805669873952866, -0.0063232905231416225, -0.0060660140588879585, -0.0058087375946342945, -0.0055514611303806305, -0.0052941846661269665, -0.0050369082018733025, -0.004779632203280926, -0.004522355739027262, -0.004265079274773598, -0.004007802810519934, -0.0037505263462662697, -0.0034932498820126057, -0.0032359734177589417, -0.0029786971863359213, -0.0027214207220822573, -0.0024641442578285933, -0.002206868026405573, -0.0019495915621519089, -0.0016923150978982449, -0.0014350386336445808, -0.0011777622858062387, -0.0009204858797602355, -0.0006632094737142324, -0.00040593306766822934, -0.00014865666162222624, 0.00010861974442377687, 0.00036589521914720535, 0.0006231716251932085, 0.0008804480312392116, 0.0011377243790775537, 0.0013950008433312178, 0.0016522773075848818, 0.001909553655423224, 0.002166830003261566, 0.00242410646751523, 0.002681382931768894, 0.002938659396022558, 0.0031959356274455786, 0.0034532120916992426, 0.0037104885559529066, 0.003967764787375927, 0.004225041251629591, 0.004482317715883255, 0.004739594180136919, 0.004996870644390583, 0.005254147108644247, 0.005511423572897911, 0.005768699571490288, 0.006025976035743952, 0.006283252499997616, 0.00654052896425128, 0.006797805428504944, 0.007055081892758608, 0.007312358357012272, 0.007569634355604649, 0.0078269112855196, 0.008084187284111977, 0.008341464214026928, 0.008598740212619305]}, "gradients/graph_10deconv1.weight": {"_type": "histogram", "values": [1.0, 0.0, 0.0, 1.0, 1.0, 1.0, 0.0, 0.0, 2.0, 1.0, 2.0, 5.0, 8.0, 8.0, 7.0, 21.0, 27.0, 39.0, 59.0, 104.0, 157.0, 251.0, 390.0, 729.0, 1260.0, 2152.0, 3634.0, 6310.0, 11083.0, 19389.0, 35352.0, 67599.0, 150636.0, 290329.0, 111243.0, 53791.0, 28106.0, 15499.0, 8863.0, 5049.0, 2891.0, 1702.0, 1018.0, 570.0, 361.0, 230.0, 114.0, 75.0, 43.0, 40.0, 18.0, 12.0, 6.0, 3.0, 4.0, 0.0, 1.0, 1.0, 0.0, 0.0, 0.0, 0.0, 1.0, 1.0], "bins": [-0.06711025536060333, -0.06509663909673691, -0.06308302283287048, -0.06106940656900406, -0.059055790305137634, -0.05704217404127121, -0.055028557777404785, -0.05301494151353836, -0.051001325249671936, -0.04898771271109581, -0.046974096447229385, -0.04496048018336296, -0.042946863919496536, -0.04093324765563011, -0.03891963139176369, -0.03690601512789726, -0.03489239886403084, -0.03287878260016441, -0.03086516633629799, -0.028851550072431564, -0.02683793380856514, -0.024824319407343864, -0.02281070314347744, -0.020797086879611015, -0.01878347061574459, -0.016769854351878166, -0.014756238088011742, -0.012742622755467892, -0.010729006491601467, -0.008715390227735043, -0.006701774429529905, -0.004688158631324768, -0.002674546092748642, -0.0006609300617128611, 0.0013526859693229198, 0.0033663020003587008, 0.005379918031394482, 0.007393534295260906, 0.009407149627804756, 0.01142076589167118, 0.013434382155537605, 0.01544799841940403, 0.017461614683270454, 0.01947523094713688, 0.021488845348358154, 0.02350246161222458, 0.025516077876091003, 0.027529694139957428, 0.029543310403823853, 0.03155692666769028, 0.0335705429315567, 0.035584159195423126, 0.03759777545928955, 0.039611391723155975, 0.0416250079870224, 0.043638624250888824, 0.04565224051475525, 0.047665853053331375, 0.0496794693171978, 0.051693085581064224, 0.05370670184493065, 0.05572031810879707, 0.0577339343726635, 0.05974755063652992, 0.06176116690039635]}, "gradients/graph_10deconv1.bias": {"_type": "histogram", "values": [1.0, 2.0, 0.0, 0.0, 0.0, 0.0, 1.0, 0.0, 0.0, 0.0, 2.0, 1.0, 2.0, 2.0, 0.0, 0.0, 5.0, 2.0, 2.0, 5.0, 7.0, 9.0, 17.0, 11.0, 15.0, 20.0, 23.0, 19.0, 25.0, 12.0, 25.0, 29.0, 25.0, 28.0, 26.0, 25.0, 30.0, 25.0, 14.0, 16.0, 17.0, 8.0, 11.0, 9.0, 9.0, 6.0, 3.0, 1.0, 4.0, 2.0, 2.0, 3.0, 1.0, 1.0, 1.0, 1.0, 2.0, 1.0, 0.0, 3.0, 0.0, 0.0, 0.0, 1.0], "bins": [-6.9267116487026215e-09, -6.719346856698394e-09, -6.511982064694166e-09, -6.3046172726899385e-09, -6.097252480685711e-09, -5.889887688681483e-09, -5.682522896677256e-09, -5.475158104673028e-09, -5.2677933126688e-09, -5.060428520664573e-09, -4.853063728660345e-09, -4.6456989366561174e-09, -4.43833414465189e-09, -4.230969352647662e-09, -4.0236045606434345e-09, -3.816239768639207e-09, -3.6088749766349792e-09, -3.4015101846307516e-09, -3.194145392626524e-09, -2.9867806006222963e-09, -2.7794158086180687e-09, -2.572051016613841e-09, -2.3646862246096134e-09, -2.1573214326053858e-09, -1.949956640601158e-09, -1.7425918485969305e-09, -1.5352270565927029e-09, -1.3278622645884752e-09, -1.1204974725842476e-09, -9.1313268058002e-10, -7.057678885757923e-10, -4.984030965715647e-10, -2.9103830456733704e-10, -8.36735125631094e-11, 1.2369127944111824e-10, 3.310560714453459e-10, 5.384208634495735e-10, 7.457856554538012e-10, 9.531504474580288e-10, 1.1605152394622564e-09, 1.367880031466484e-09, 1.5752448234707117e-09, 1.7826096154749393e-09, 1.989974407479167e-09, 2.1973391994833946e-09, 2.4047039914876223e-09, 2.61206878349185e-09, 2.8194335754960775e-09, 3.026798367500305e-09, 3.234163159504533e-09, 3.4415279515087605e-09, 3.648892743512988e-09, 3.856257535517216e-09, 4.063622327521443e-09, 4.270987119525671e-09, 4.478351911529899e-09, 4.685716703534126e-09, 4.893081495538354e-09, 5.1004462875425816e-09, 5.307811079546809e-09, 5.515175871551037e-09, 5.7225406635552645e-09, 5.929905455559492e-09, 6.13727024756372e-09, 6.344635039567947e-09]}, "_wandb": {"runtime": 1264}}